<?xml version="1.0"?>
<opencv_storage>
<cascade>
  <stageType>BOOST</stageType>
  <featureType>HAAR</featureType>
  <height>40</height>
  <width>40</width>
  <stageParams>
    <boostType>GAB</boostType>
    <minHitRate>9.9989998340606689e-01</minHitRate>
    <maxFalseAlarm>9.9999997764825821e-03</maxFalseAlarm>
    <weightTrimRate>9.4999999999999996e-01</weightTrimRate>
    <maxDepth>1</maxDepth>
    <maxWeakCount>100</maxWeakCount></stageParams>
  <featureParams>
    <maxCatCount>0</maxCatCount>
    <featSize>1</featSize>
    <mode>ALL</mode></featureParams>
  <stageNum>11</stageNum>
  <stages>
    <!-- stage 0 -->
    <_>
      <maxWeakCount>3</maxWeakCount>
      <stageThreshold>5.5444949865341187e-01</stageThreshold>
      <weakClassifiers>
        <_>
          <internalNodes>
            0 -1 3 -6.8570859730243683e-03</internalNodes>
          <leafValues>
            1. -9.3548387289047241e-01</leafValues></_>
        <_>
          <internalNodes>
            0 -1 2 -7.6999500393867493e-02</internalNodes>
          <leafValues>
            7.6376467943191528e-01 -1.</leafValues></_>
        <_>
          <internalNodes>
            0 -1 15 7.5792223215103149e-02</internalNodes>
          <leafValues>
            7.2616875171661377e-01 -1.</leafValues></_></weakClassifiers></_>
    <!-- stage 1 -->
    <_>
      <maxWeakCount>3</maxWeakCount>
      <stageThreshold>6.2005758285522461e-01</stageThreshold>
      <weakClassifiers>
        <_>
          <internalNodes>
            0 -1 5 -2.4102356284856796e-02</internalNodes>
          <leafValues>
            8.0000001192092896e-01 -9.3333333730697632e-01</leafValues></_>
        <_>
          <internalNodes>
            0 -1 22 -1.5198490291368216e-04</internalNodes>
          <leafValues>
            -9.3239295482635498e-01 7.7282732725143433e-01</leafValues></_>
        <_>
          <internalNodes>
            0 -1 27 -1.7875464982353151e-04</internalNodes>
          <leafValues>
            7.8056359291076660e-01 -9.3618339300155640e-01</leafValues></_></weakClassifiers></_>
    <!-- stage 2 -->
    <_>
      <maxWeakCount>3</maxWeakCount>
      <stageThreshold>6.3515996932983398e-01</stageThreshold>
      <weakClassifiers>
        <_>
          <internalNodes>
            0 -1 4 4.7724523028591648e-05</internalNodes>
          <leafValues>
            -9.3333333730697632e-01 8.0000001192092896e-01</leafValues></_>
        <_>
          <internalNodes>
            0 -1 1 1.0167257860302925e-02</internalNodes>
          <leafValues>
            -9.3239295482635498e-01 7.7282732725143433e-01</leafValues></_>
        <_>
          <internalNodes>
            0 -1 13 4.9310587201034650e-05</internalNodes>
          <leafValues>
            -9.3766736984252930e-01 8.4815573692321777e-01</leafValues></_></weakClassifiers></_>
    <!-- stage 3 -->
    <_>
      <maxWeakCount>3</maxWeakCount>
      <stageThreshold>6.3759928941726685e-01</stageThreshold>
      <weakClassifiers>
        <_>
          <internalNodes>
            0 -1 20 3.5915567423216999e-05</internalNodes>
          <leafValues>
            -9.3103450536727905e-01 6.3636362552642822e-01</leafValues></_>
        <_>
          <internalNodes>
            0 -1 18 -3.5915567423216999e-05</internalNodes>
          <leafValues>
            8.8120573759078979e-01 -8.6324846744537354e-01</leafValues></_>
        <_>
          <internalNodes>
            0 -1 29 4.7724523028591648e-05</internalNodes>
          <leafValues>
            -8.7997013330459595e-01 9.3105989694595337e-01</leafValues></_></weakClassifiers></_>
    <!-- stage 4 -->
    <_>
      <maxWeakCount>3</maxWeakCount>
      <stageThreshold>6.6411370038986206e-01</stageThreshold>
      <weakClassifiers>
        <_>
          <internalNodes>
            0 -1 0 -7.7720736153423786e-03</internalNodes>
          <leafValues>
            1. -8.1818181276321411e-01</leafValues></_>
        <_>
          <internalNodes>
            0 -1 23 1.4295476721599698e-03</internalNodes>
          <leafValues>
            6.8311363458633423e-01 -1.</leafValues></_>
        <_>
          <internalNodes>
            0 -1 8 -3.0536677513737231e-05</internalNodes>
          <leafValues>
            7.9918187856674194e-01 -9.0220808982849121e-01</leafValues></_></weakClassifiers></_>
    <!-- stage 5 -->
    <_>
      <maxWeakCount>2</maxWeakCount>
      <stageThreshold>9.8819702863693237e-01</stageThreshold>
      <weakClassifiers>
        <_>
          <internalNodes>
            0 -1 12 -4.8751401482149959e-04</internalNodes>
          <leafValues>
            -1. 4.2857143282890320e-01</leafValues></_>
        <_>
          <internalNodes>
            0 -1 28 2.2364726755768061e-03</internalNodes>
          <leafValues>
            5.5962556600570679e-01 -1.</leafValues></_></weakClassifiers></_>
    <!-- stage 6 -->
    <_>
      <maxWeakCount>3</maxWeakCount>
      <stageThreshold>5.7250416278839111e-01</stageThreshold>
      <weakClassifiers>
        <_>
          <internalNodes>
            0 -1 25 -1.0288788471370935e-03</internalNodes>
          <leafValues>
            -9.3548387289047241e-01 1.</leafValues></_>
        <_>
          <internalNodes>
            0 -1 30 -2.8030513203702867e-04</internalNodes>
          <leafValues>
            7.4991786479949951e-01 -9.3520379066467285e-01</leafValues></_>
        <_>
          <internalNodes>
            0 -1 7 -2.3667802452109754e-04</internalNodes>
          <leafValues>
            -9.3886613845825195e-01 7.5807017087936401e-01</leafValues></_></weakClassifiers></_>
    <!-- stage 7 -->
    <_>
      <maxWeakCount>3</maxWeakCount>
      <stageThreshold>6.0464747250080109e-02</stageThreshold>
      <weakClassifiers>
        <_>
          <internalNodes>
            0 -1 26 -4.6520491014234722e-04</internalNodes>
          <leafValues>
            5.0000000000000000e-01 -9.2857140302658081e-01</leafValues></_>
        <_>
          <internalNodes>
            0 -1 21 -1.0085336398333311e-03</internalNodes>
          <leafValues>
            -1. 4.8569074273109436e-01</leafValues></_>
        <_>
          <internalNodes>
            0 -1 6 3.8531408063136041e-04</internalNodes>
          <leafValues>
            5.0334542989730835e-01 -1.</leafValues></_></weakClassifiers></_>
    <!-- stage 8 -->
    <_>
      <maxWeakCount>3</maxWeakCount>
      <stageThreshold>7.9395586252212524e-01</stageThreshold>
      <weakClassifiers>
        <_>
          <internalNodes>
            0 -1 9 -3.0536677513737231e-05</internalNodes>
          <leafValues>
            8.0000001192092896e-01 -9.3333333730697632e-01</leafValues></_>
        <_>
          <internalNodes>
            0 -1 24 1.8942682072520256e-04</internalNodes>
          <leafValues>
            8.7957429885864258e-01 -9.3433552980422974e-01</leafValues></_>
        <_>
          <internalNodes>
            0 -1 16 2.7008284814655781e-03</internalNodes>
          <leafValues>
            -8.8561844825744629e-01 1.</leafValues></_></weakClassifiers></_>
    <!-- stage 9 -->
    <_>
      <maxWeakCount>3</maxWeakCount>
      <stageThreshold>5.8757156133651733e-01</stageThreshold>
      <weakClassifiers>
        <_>
          <internalNodes>
            0 -1 10 9.3205184384714812e-05</internalNodes>
          <leafValues>
            -1. 6.6666668653488159e-01</leafValues></_>
        <_>
          <internalNodes>
            0 -1 11 1.8379726679995656e-03</internalNodes>
          <leafValues>
            8.5251295566558838e-01 -9.2840182781219482e-01</leafValues></_>
        <_>
          <internalNodes>
            0 -1 17 3.6185892531648278e-04</internalNodes>
          <leafValues>
            9.0901482105255127e-01 -9.3160802125930786e-01</leafValues></_></weakClassifiers></_>
    <!-- stage 10 -->
    <_>
      <maxWeakCount>2</maxWeakCount>
      <stageThreshold>6.0607377439737320e-02</stageThreshold>
      <weakClassifiers>
        <_>
          <internalNodes>
            0 -1 14 4.2892957571893930e-04</internalNodes>
          <leafValues>
            -9.3548387289047241e-01 1.</leafValues></_>
        <_>
          <internalNodes>
            0 -1 19 3.0180914327502251e-03</internalNodes>
          <leafValues>
            1. -9.3939262628555298e-01</leafValues></_></weakClassifiers></_></stages>
  <features>
    <_>
      <rects>
        <_>
          0 0 4 16 -1.</_>
        <_>
          0 0 2 8 2.</_>
        <_>
          2 8 2 8 2.</_></rects>
      <tilted>0</tilted></_>
    <_>
      <rects>
        <_>
          0 0 16 1 -1.</_>
        <_>
          8 0 8 1 2.</_></rects>
      <tilted>0</tilted></_>
    <_>
      <rects>
        <_>
          0 0 36 20 -1.</_>
        <_>
          0 0 18 10 2.</_>
        <_>
          18 10 18 10 2.</_></rects>
      <tilted>0</tilted></_>
    <_>
      <rects>
        <_>
          0 3 8 16 -1.</_>
        <_>
          0 3 4 8 2.</_>
        <_>
          4 11 4 8 2.</_></rects>
      <tilted>0</tilted></_>
    <_>
      <rects>
        <_>
          1 0 2 2 -1.</_>
        <_>
          1 0 1 1 2.</_>
        <_>
          2 1 1 1 2.</_></rects>
      <tilted>0</tilted></_>
    <_>
      <rects>
        <_>
          1 1 20 1 -1.</_>
        <_>
          1 1 10 1 2.</_></rects>
      <tilted>1</tilted></_>
    <_>
      <rects>
        <_>
          1 33 6 7 -1.</_>
        <_>
          3 33 2 7 3.</_></rects>
      <tilted>0</tilted></_>
    <_>
      <rects>
        <_>
          2 20 8 4 -1.</_>
        <_>
          2 20 4 2 2.</_>
        <_>
          6 22 4 2 2.</_></rects>
      <tilted>0</tilted></_>
    <_>
      <rects>
        <_>
          4 1 2 3 -1.</_>
        <_>
          3 2 2 1 3.</_></rects>
      <tilted>1</tilted></_>
    <_>
      <rects>
        <_>
          5 26 4 1 -1.</_>
        <_>
          6 27 2 1 2.</_></rects>
      <tilted>1</tilted></_>
    <_>
      <rects>
        <_>
          6 18 5 4 -1.</_>
        <_>
          6 20 5 2 2.</_></rects>
      <tilted>0</tilted></_>
    <_>
      <rects>
        <_>
          7 9 27 12 -1.</_>
        <_>
          7 15 27 6 2.</_></rects>
      <tilted>0</tilted></_>
    <_>
      <rects>
        <_>
          8 18 8 6 -1.</_>
        <_>
          8 18 4 3 2.</_>
        <_>
          12 21 4 3 2.</_></rects>
      <tilted>0</tilted></_>
    <_>
      <rects>
        <_>
          11 34 2 4 -1.</_>
        <_>
          12 34 1 4 2.</_></rects>
      <tilted>0</tilted></_>
    <_>
      <rects>
        <_>
          12 28 12 10 -1.</_>
        <_>
          16 28 4 10 3.</_></rects>
      <tilted>0</tilted></_>
    <_>
      <rects>
        <_>
          13 1 27 39 -1.</_>
        <_>
          22 14 9 13 9.</_></rects>
      <tilted>0</tilted></_>
    <_>
      <rects>
        <_>
          14 2 22 32 -1.</_>
        <_>
          14 10 22 16 2.</_></rects>
      <tilted>0</tilted></_>
    <_>
      <rects>
        <_>
          14 6 10 6 -1.</_>
        <_>
          14 9 10 3 2.</_></rects>
      <tilted>0</tilted></_>
    <_>
      <rects>
        <_>
          14 22 1 3 -1.</_>
        <_>
          13 23 1 1 3.</_></rects>
      <tilted>1</tilted></_>
    <_>
      <rects>
        <_>
          15 11 12 21 -1.</_>
        <_>
          15 18 12 7 3.</_></rects>
      <tilted>0</tilted></_>
    <_>
      <rects>
        <_>
          19 3 4 1 -1.</_>
        <_>
          21 3 2 1 2.</_></rects>
      <tilted>0</tilted></_>
    <_>
      <rects>
        <_>
          23 0 3 15 -1.</_>
        <_>
          23 5 3 5 3.</_></rects>
      <tilted>0</tilted></_>
    <_>
      <rects>
        <_>
          23 2 2 16 -1.</_>
        <_>
          23 10 2 8 2.</_></rects>
      <tilted>0</tilted></_>
    <_>
      <rects>
        <_>
          24 2 2 16 -1.</_>
        <_>
          20 6 2 8 2.</_></rects>
      <tilted>1</tilted></_>
    <_>
      <rects>
        <_>
          24 4 10 1 -1.</_>
        <_>
          24 4 5 1 2.</_></rects>
      <tilted>1</tilted></_>
    <_>
      <rects>
        <_>
          27 6 9 18 -1.</_>
        <_>
          27 12 9 6 3.</_></rects>
      <tilted>0</tilted></_>
    <_>
      <rects>
        <_>
          27 15 3 10 -1.</_>
        <_>
          28 16 1 10 3.</_></rects>
      <tilted>1</tilted></_>
    <_>
      <rects>
        <_>
          27 27 2 6 -1.</_>
        <_>
          27 29 2 2 3.</_></rects>
      <tilted>0</tilted></_>
    <_>
      <rects>
        <_>
          29 5 9 21 -1.</_>
        <_>
          32 12 3 7 9.</_></rects>
      <tilted>0</tilted></_>
    <_>
      <rects>
        <_>
          29 9 2 2 -1.</_>
        <_>
          30 9 1 2 2.</_></rects>
      <tilted>0</tilted></_>
    <_>
      <rects>
        <_>
          29 29 1 6 -1.</_>
        <_>
          27 31 1 2 3.</_></rects>
      <tilted>1</tilted></_></features></cascade>
</opencv_storage>
