<?xml version="1.0"?>
<opencv_storage>
<cascade>
  <stageType>BOOST</stageType>
  <featureType>HAAR</featureType>
  <height>25</height>
  <width>25</width>
  <stageParams>
    <boostType>GAB</boostType>
    <minHitRate>9.9900001287460327e-01</minHitRate>
    <maxFalseAlarm>5.0000000000000000e-01</maxFalseAlarm>
    <weightTrimRate>9.4999999999999996e-01</weightTrimRate>
    <maxDepth>1</maxDepth>
    <maxWeakCount>100</maxWeakCount></stageParams>
  <featureParams>
    <maxCatCount>0</maxCatCount>
    <featSize>1</featSize>
    <mode>ALL</mode></featureParams>
  <stageNum>7</stageNum>
  <stages>
    <!-- stage 0 -->
    <_>
      <maxWeakCount>6</maxWeakCount>
      <stageThreshold>-2.1012222766876221e+00</stageThreshold>
      <weakClassifiers>
        <_>
          <internalNodes>
            0 -1 4 4.8487238585948944e-02</internalNodes>
          <leafValues>
            -8.9789474010467529e-01 7.6744186878204346e-01</leafValues></_>
        <_>
          <internalNodes>
            0 -1 14 6.0268756933510303e-03</internalNodes>
          <leafValues>
            -7.0456904172897339e-01 7.3593211174011230e-01</leafValues></_>
        <_>
          <internalNodes>
            0 -1 38 2.0614083856344223e-02</internalNodes>
          <leafValues>
            -4.5483013987541199e-01 8.7448501586914063e-01</leafValues></_>
        <_>
          <internalNodes>
            0 -1 36 2.5012989062815905e-03</internalNodes>
          <leafValues>
            -3.4431880712509155e-01 7.1750843524932861e-01</leafValues></_>
        <_>
          <internalNodes>
            0 -1 7 7.7214449644088745e-02</internalNodes>
          <leafValues>
            -3.8098773360252380e-01 6.8584418296813965e-01</leafValues></_>
        <_>
          <internalNodes>
            0 -1 29 -6.8602710962295532e-03</internalNodes>
          <leafValues>
            7.2219848632812500e-01 -3.8044917583465576e-01</leafValues></_></weakClassifiers></_>
    <!-- stage 1 -->
    <_>
      <maxWeakCount>6</maxWeakCount>
      <stageThreshold>-1.8475123643875122e+00</stageThreshold>
      <weakClassifiers>
        <_>
          <internalNodes>
            0 -1 8 5.1258865743875504e-02</internalNodes>
          <leafValues>
            -8.6947584152221680e-01 8.3892619609832764e-01</leafValues></_>
        <_>
          <internalNodes>
            0 -1 45 -5.6784555315971375e-02</internalNodes>
          <leafValues>
            7.3981320858001709e-01 -6.3735860586166382e-01</leafValues></_>
        <_>
          <internalNodes>
            0 -1 3 -2.3540947586297989e-02</internalNodes>
          <leafValues>
            8.3427304029464722e-01 -3.8831603527069092e-01</leafValues></_>
        <_>
          <internalNodes>
            0 -1 6 7.5449921190738678e-02</internalNodes>
          <leafValues>
            -4.0809303522109985e-01 6.5233850479125977e-01</leafValues></_>
        <_>
          <internalNodes>
            0 -1 60 2.4180472828447819e-03</internalNodes>
          <leafValues>
            3.3989277482032776e-01 -8.6530846357345581e-01</leafValues></_>
        <_>
          <internalNodes>
            0 -1 53 3.3237251918762922e-03</internalNodes>
          <leafValues>
            2.6060807704925537e-01 -8.0928546190261841e-01</leafValues></_></weakClassifiers></_>
    <!-- stage 2 -->
    <_>
      <maxWeakCount>7</maxWeakCount>
      <stageThreshold>-1.9712802171707153e+00</stageThreshold>
      <weakClassifiers>
        <_>
          <internalNodes>
            0 -1 11 -1.3404259085655212e-01</internalNodes>
          <leafValues>
            6.4971750974655151e-01 -8.8465607166290283e-01</leafValues></_>
        <_>
          <internalNodes>
            0 -1 15 -6.0846204869449139e-03</internalNodes>
          <leafValues>
            6.7128467559814453e-01 -6.2727600336074829e-01</leafValues></_>
        <_>
          <internalNodes>
            0 -1 60 -2.0402176305651665e-03</internalNodes>
          <leafValues>
            -7.7931082248687744e-01 3.1690979003906250e-01</leafValues></_>
        <_>
          <internalNodes>
            0 -1 39 1.8147525843232870e-03</internalNodes>
          <leafValues>
            1.9504165649414063e-01 -8.6877900362014771e-01</leafValues></_>
        <_>
          <internalNodes>
            0 -1 43 -1.5039551071822643e-03</internalNodes>
          <leafValues>
            -7.6763528585433960e-01 2.6738446950912476e-01</leafValues></_>
        <_>
          <internalNodes>
            0 -1 10 2.6724787428975105e-02</internalNodes>
          <leafValues>
            -4.2309415340423584e-01 5.7923299074172974e-01</leafValues></_>
        <_>
          <internalNodes>
            0 -1 49 -7.9427531454712152e-04</internalNodes>
          <leafValues>
            -9.2986482381820679e-01 2.8063061833381653e-01</leafValues></_></weakClassifiers></_>
    <!-- stage 3 -->
    <_>
      <maxWeakCount>7</maxWeakCount>
      <stageThreshold>-1.6445342302322388e+00</stageThreshold>
      <weakClassifiers>
        <_>
          <internalNodes>
            0 -1 41 -3.0191268771886826e-02</internalNodes>
          <leafValues>
            7.4545454978942871e-01 -7.9347825050354004e-01</leafValues></_>
        <_>
          <internalNodes>
            0 -1 5 2.2628549486398697e-02</internalNodes>
          <leafValues>
            -6.2868034839630127e-01 6.4444303512573242e-01</leafValues></_>
        <_>
          <internalNodes>
            0 -1 24 9.1939847916364670e-03</internalNodes>
          <leafValues>
            -4.2438617348670959e-01 6.4803767204284668e-01</leafValues></_>
        <_>
          <internalNodes>
            0 -1 13 2.2181198000907898e-03</internalNodes>
          <leafValues>
            -3.1431162357330322e-01 6.4241743087768555e-01</leafValues></_>
        <_>
          <internalNodes>
            0 -1 52 -5.0459643825888634e-03</internalNodes>
          <leafValues>
            -8.1512027978897095e-01 2.5511065125465393e-01</leafValues></_>
        <_>
          <internalNodes>
            0 -1 62 7.1690226905047894e-03</internalNodes>
          <leafValues>
            2.2824551165103912e-01 -7.9969310760498047e-01</leafValues></_>
        <_>
          <internalNodes>
            0 -1 63 -2.7755969204008579e-03</internalNodes>
          <leafValues>
            -8.8531476259231567e-01 1.4646787941455841e-01</leafValues></_></weakClassifiers></_>
    <!-- stage 4 -->
    <_>
      <maxWeakCount>11</maxWeakCount>
      <stageThreshold>-1.9949882030487061e+00</stageThreshold>
      <weakClassifiers>
        <_>
          <internalNodes>
            0 -1 42 -3.1398426741361618e-02</internalNodes>
          <leafValues>
            5.7251906394958496e-01 -8.0322903394699097e-01</leafValues></_>
        <_>
          <internalNodes>
            0 -1 1 -2.8686742298305035e-03</internalNodes>
          <leafValues>
            3.9001503586769104e-01 -5.8912014961242676e-01</leafValues></_>
        <_>
          <internalNodes>
            0 -1 35 -3.4335926175117493e-03</internalNodes>
          <leafValues>
            4.6427813172340393e-01 -3.6291113495826721e-01</leafValues></_>
        <_>
          <internalNodes>
            0 -1 37 -4.3354980647563934e-02</internalNodes>
          <leafValues>
            4.4439020752906799e-01 -3.6041492223739624e-01</leafValues></_>
        <_>
          <internalNodes>
            0 -1 55 1.0797777213156223e-03</internalNodes>
          <leafValues>
            1.7205600440502167e-01 -7.5899392366409302e-01</leafValues></_>
        <_>
          <internalNodes>
            0 -1 54 -1.3108865823596716e-03</internalNodes>
          <leafValues>
            -8.8365018367767334e-01 1.3888986408710480e-01</leafValues></_>
        <_>
          <internalNodes>
            0 -1 34 8.2703295629471540e-04</internalNodes>
          <leafValues>
            1.4035992324352264e-01 -6.6190212965011597e-01</leafValues></_>
        <_>
          <internalNodes>
            0 -1 17 -1.9139766227453947e-03</internalNodes>
          <leafValues>
            4.1557034850120544e-01 -2.5686877965927124e-01</leafValues></_>
        <_>
          <internalNodes>
            0 -1 16 -6.3749728724360466e-03</internalNodes>
          <leafValues>
            5.9036451578140259e-01 -2.2948984801769257e-01</leafValues></_>
        <_>
          <internalNodes>
            0 -1 57 -3.5720346495509148e-03</internalNodes>
          <leafValues>
            -6.4006000757217407e-01 1.8071120977401733e-01</leafValues></_>
        <_>
          <internalNodes>
            0 -1 27 2.7796234935522079e-03</internalNodes>
          <leafValues>
            1.2336081266403198e-01 -6.9712191820144653e-01</leafValues></_></weakClassifiers></_>
    <!-- stage 5 -->
    <_>
      <maxWeakCount>17</maxWeakCount>
      <stageThreshold>-2.3632502555847168e+00</stageThreshold>
      <weakClassifiers>
        <_>
          <internalNodes>
            0 -1 44 -2.6505261659622192e-02</internalNodes>
          <leafValues>
            2.1095889806747437e-01 -8.0840873718261719e-01</leafValues></_>
        <_>
          <internalNodes>
            0 -1 13 2.5774571113288403e-03</internalNodes>
          <leafValues>
            -5.4004818201065063e-01 3.1985491514205933e-01</leafValues></_>
        <_>
          <internalNodes>
            0 -1 20 -1.1832003481686115e-02</internalNodes>
          <leafValues>
            2.2391413152217865e-01 -6.4058440923690796e-01</leafValues></_>
        <_>
          <internalNodes>
            0 -1 28 1.7439532093703747e-03</internalNodes>
          <leafValues>
            -3.0093306303024292e-01 4.9848872423171997e-01</leafValues></_>
        <_>
          <internalNodes>
            0 -1 46 1.5416998649016023e-03</internalNodes>
          <leafValues>
            2.6658460497856140e-01 -5.1933175325393677e-01</leafValues></_>
        <_>
          <internalNodes>
            0 -1 50 -5.8552026748657227e-03</internalNodes>
          <leafValues>
            -4.7419062256813049e-01 2.3152567446231842e-01</leafValues></_>
        <_>
          <internalNodes>
            0 -1 22 3.2905428670346737e-03</internalNodes>
          <leafValues>
            -3.9196005463600159e-01 2.7194994688034058e-01</leafValues></_>
        <_>
          <internalNodes>
            0 -1 32 -2.0622545853257179e-03</internalNodes>
          <leafValues>
            3.7101072072982788e-01 -2.7581688761711121e-01</leafValues></_>
        <_>
          <internalNodes>
            0 -1 21 -4.0123797953128815e-03</internalNodes>
          <leafValues>
            -4.5153042674064636e-01 2.0502023398876190e-01</leafValues></_>
        <_>
          <internalNodes>
            0 -1 56 1.3017638120800257e-03</internalNodes>
          <leafValues>
            1.2063284963369370e-01 -7.9777562618255615e-01</leafValues></_>
        <_>
          <internalNodes>
            0 -1 58 -2.5759697891771793e-03</internalNodes>
          <leafValues>
            -3.9829149842262268e-01 1.8458138406276703e-01</leafValues></_>
        <_>
          <internalNodes>
            0 -1 30 4.4469799846410751e-02</internalNodes>
          <leafValues>
            7.9215124249458313e-02 -9.6131652593612671e-01</leafValues></_>
        <_>
          <internalNodes>
            0 -1 2 1.7042993567883968e-03</internalNodes>
          <leafValues>
            -1.9690443575382233e-01 4.2971742153167725e-01</leafValues></_>
        <_>
          <internalNodes>
            0 -1 33 9.0549583546817303e-04</internalNodes>
          <leafValues>
            1.4450217783451080e-01 -6.1801224946975708e-01</leafValues></_>
        <_>
          <internalNodes>
            0 -1 31 -2.9969257302582264e-03</internalNodes>
          <leafValues>
            1.8727844953536987e-01 -4.0146714448928833e-01</leafValues></_>
        <_>
          <internalNodes>
            0 -1 23 -2.0938671659678221e-03</internalNodes>
          <leafValues>
            3.9748570322990417e-01 -2.5013121962547302e-01</leafValues></_>
        <_>
          <internalNodes>
            0 -1 48 -1.7806342802941799e-03</internalNodes>
          <leafValues>
            -6.0275107622146606e-01 1.4619775116443634e-01</leafValues></_></weakClassifiers></_>
    <!-- stage 6 -->
    <_>
      <maxWeakCount>15</maxWeakCount>
      <stageThreshold>-1.7401131391525269e+00</stageThreshold>
      <weakClassifiers>
        <_>
          <internalNodes>
            0 -1 40 -3.0628200620412827e-02</internalNodes>
          <leafValues>
            1.1551155149936676e-01 -7.6094794273376465e-01</leafValues></_>
        <_>
          <internalNodes>
            0 -1 13 1.9852523691952229e-03</internalNodes>
          <leafValues>
            -4.9852555990219116e-01 1.4142657816410065e-01</leafValues></_>
        <_>
          <internalNodes>
            0 -1 19 -1.8653210252523422e-02</internalNodes>
          <leafValues>
            3.3687537908554077e-01 -2.9257357120513916e-01</leafValues></_>
        <_>
          <internalNodes>
            0 -1 65 -8.9301080151926726e-05</internalNodes>
          <leafValues>
            3.8240030407905579e-01 -2.1418094635009766e-01</leafValues></_>
        <_>
          <internalNodes>
            0 -1 64 1.0862683120649308e-04</internalNodes>
          <leafValues>
            -2.3869226872920990e-01 3.3825865387916565e-01</leafValues></_>
        <_>
          <internalNodes>
            0 -1 0 -1.2828496983274817e-04</internalNodes>
          <leafValues>
            2.7553614974021912e-01 -2.4132005870342255e-01</leafValues></_>
        <_>
          <internalNodes>
            0 -1 61 7.2285867645405233e-05</internalNodes>
          <leafValues>
            -1.9075684249401093e-01 3.3802422881126404e-01</leafValues></_>
        <_>
          <internalNodes>
            0 -1 18 3.2575324177742004e-02</internalNodes>
          <leafValues>
            -9.9231578409671783e-02 6.5479081869125366e-01</leafValues></_>
        <_>
          <internalNodes>
            0 -1 51 -7.8237237175926566e-05</internalNodes>
          <leafValues>
            3.2678678631782532e-01 -1.9826692342758179e-01</leafValues></_>
        <_>
          <internalNodes>
            0 -1 26 5.3999563679099083e-03</internalNodes>
          <leafValues>
            8.0878771841526031e-02 -7.2390013933181763e-01</leafValues></_>
        <_>
          <internalNodes>
            0 -1 25 -5.8108260855078697e-03</internalNodes>
          <leafValues>
            -4.9452668428421021e-01 1.1024633795022964e-01</leafValues></_>
        <_>
          <internalNodes>
            0 -1 59 -6.7823997233062983e-04</internalNodes>
          <leafValues>
            4.8204237222671509e-01 -1.2921941280364990e-01</leafValues></_>
        <_>
          <internalNodes>
            0 -1 47 -1.5455010579898953e-03</internalNodes>
          <leafValues>
            -5.5002415180206299e-01 1.0983871668577194e-01</leafValues></_>
        <_>
          <internalNodes>
            0 -1 9 -1.6325268894433975e-02</internalNodes>
          <leafValues>
            3.1014630198478699e-01 -2.0357103645801544e-01</leafValues></_>
        <_>
          <internalNodes>
            0 -1 12 4.5496895909309387e-02</internalNodes>
          <leafValues>
            6.3430078327655792e-02 -9.0968149900436401e-01</leafValues></_></weakClassifiers></_></stages>
  <features>
    <_>
      <rects>
        <_>
          0 0 2 1 -1.</_>
        <_>
          1 0 1 1 2.</_></rects>
      <tilted>0</tilted></_>
    <_>
      <rects>
        <_>
          0 0 1 4 -1.</_>
        <_>
          0 1 1 2 2.</_></rects>
      <tilted>0</tilted></_>
    <_>
      <rects>
        <_>
          0 0 2 2 -1.</_>
        <_>
          0 0 1 1 2.</_>
        <_>
          1 1 1 1 2.</_></rects>
      <tilted>0</tilted></_>
    <_>
      <rects>
        <_>
          0 0 4 6 -1.</_>
        <_>
          0 0 2 3 2.</_>
        <_>
          2 3 2 3 2.</_></rects>
      <tilted>0</tilted></_>
    <_>
      <rects>
        <_>
          0 0 2 14 -1.</_>
        <_>
          0 7 2 7 2.</_></rects>
      <tilted>0</tilted></_>
    <_>
      <rects>
        <_>
          0 0 3 6 -1.</_>
        <_>
          0 3 3 3 2.</_></rects>
      <tilted>0</tilted></_>
    <_>
      <rects>
        <_>
          0 0 3 24 -1.</_>
        <_>
          0 12 3 12 2.</_></rects>
      <tilted>0</tilted></_>
    <_>
      <rects>
        <_>
          0 0 4 20 -1.</_>
        <_>
          0 10 4 10 2.</_></rects>
      <tilted>0</tilted></_>
    <_>
      <rects>
        <_>
          0 0 12 2 -1.</_>
        <_>
          6 0 6 2 2.</_></rects>
      <tilted>0</tilted></_>
    <_>
      <rects>
        <_>
          0 0 12 4 -1.</_>
        <_>
          0 0 6 2 2.</_>
        <_>
          6 2 6 2 2.</_></rects>
      <tilted>0</tilted></_>
    <_>
      <rects>
        <_>
          0 0 16 1 -1.</_>
        <_>
          8 0 8 1 2.</_></rects>
      <tilted>0</tilted></_>
    <_>
      <rects>
        <_>
          0 0 18 12 -1.</_>
        <_>
          0 0 9 6 2.</_>
        <_>
          9 6 9 6 2.</_></rects>
      <tilted>0</tilted></_>
    <_>
      <rects>
        <_>
          0 1 16 1 -1.</_>
        <_>
          4 1 8 1 2.</_></rects>
      <tilted>0</tilted></_>
    <_>
      <rects>
        <_>
          0 2 1 2 -1.</_>
        <_>
          0 3 1 1 2.</_></rects>
      <tilted>0</tilted></_>
    <_>
      <rects>
        <_>
          0 2 2 3 -1.</_>
        <_>
          0 3 2 1 3.</_></rects>
      <tilted>0</tilted></_>
    <_>
      <rects>
        <_>
          0 2 4 2 -1.</_>
        <_>
          0 2 2 1 2.</_>
        <_>
          2 3 2 1 2.</_></rects>
      <tilted>0</tilted></_>
    <_>
      <rects>
        <_>
          0 3 2 4 -1.</_>
        <_>
          0 4 2 2 2.</_></rects>
      <tilted>0</tilted></_>
    <_>
      <rects>
        <_>
          0 3 4 2 -1.</_>
        <_>
          0 3 2 1 2.</_>
        <_>
          2 4 2 1 2.</_></rects>
      <tilted>0</tilted></_>
    <_>
      <rects>
        <_>
          0 3 10 4 -1.</_>
        <_>
          0 3 5 2 2.</_>
        <_>
          5 5 5 2 2.</_></rects>
      <tilted>0</tilted></_>
    <_>
      <rects>
        <_>
          0 4 10 4 -1.</_>
        <_>
          0 4 5 2 2.</_>
        <_>
          5 6 5 2 2.</_></rects>
      <tilted>0</tilted></_>
    <_>
      <rects>
        <_>
          0 4 20 12 -1.</_>
        <_>
          0 4 10 6 2.</_>
        <_>
          10 10 10 6 2.</_></rects>
      <tilted>0</tilted></_>
    <_>
      <rects>
        <_>
          0 7 9 11 -1.</_>
        <_>
          3 7 3 11 3.</_></rects>
      <tilted>0</tilted></_>
    <_>
      <rects>
        <_>
          1 0 1 12 -1.</_>
        <_>
          1 3 1 6 2.</_></rects>
      <tilted>0</tilted></_>
    <_>
      <rects>
        <_>
          1 3 4 2 -1.</_>
        <_>
          3 3 2 2 2.</_></rects>
      <tilted>0</tilted></_>
    <_>
      <rects>
        <_>
          1 4 1 6 -1.</_>
        <_>
          1 7 1 3 2.</_></rects>
      <tilted>0</tilted></_>
    <_>
      <rects>
        <_>
          1 7 6 14 -1.</_>
        <_>
          4 7 3 14 2.</_></rects>
      <tilted>0</tilted></_>
    <_>
      <rects>
        <_>
          1 10 4 14 -1.</_>
        <_>
          3 10 2 14 2.</_></rects>
      <tilted>0</tilted></_>
    <_>
      <rects>
        <_>
          1 22 9 2 -1.</_>
        <_>
          4 22 3 2 3.</_></rects>
      <tilted>0</tilted></_>
    <_>
      <rects>
        <_>
          2 0 2 1 -1.</_>
        <_>
          3 0 1 1 2.</_></rects>
      <tilted>0</tilted></_>
    <_>
      <rects>
        <_>
          2 0 2 2 -1.</_>
        <_>
          2 0 1 2 2.</_></rects>
      <tilted>1</tilted></_>
    <_>
      <rects>
        <_>
          2 0 8 1 -1.</_>
        <_>
          4 2 4 1 2.</_></rects>
      <tilted>1</tilted></_>
    <_>
      <rects>
        <_>
          2 1 4 1 -1.</_>
        <_>
          2 1 2 1 2.</_></rects>
      <tilted>1</tilted></_>
    <_>
      <rects>
        <_>
          2 5 1 2 -1.</_>
        <_>
          2 5 1 1 2.</_></rects>
      <tilted>1</tilted></_>
    <_>
      <rects>
        <_>
          2 8 2 2 -1.</_>
        <_>
          2 8 2 1 2.</_></rects>
      <tilted>1</tilted></_>
    <_>
      <rects>
        <_>
          2 10 4 2 -1.</_>
        <_>
          4 10 2 2 2.</_></rects>
      <tilted>0</tilted></_>
    <_>
      <rects>
        <_>
          3 0 2 1 -1.</_>
        <_>
          3 0 1 1 2.</_></rects>
      <tilted>1</tilted></_>
    <_>
      <rects>
        <_>
          3 0 3 2 -1.</_>
        <_>
          4 0 1 2 3.</_></rects>
      <tilted>0</tilted></_>
    <_>
      <rects>
        <_>
          3 1 8 16 -1.</_>
        <_>
          3 1 4 8 2.</_>
        <_>
          7 9 4 8 2.</_></rects>
      <tilted>0</tilted></_>
    <_>
      <rects>
        <_>
          4 0 4 6 -1.</_>
        <_>
          6 0 2 6 2.</_></rects>
      <tilted>0</tilted></_>
    <_>
      <rects>
        <_>
          4 10 3 2 -1.</_>
        <_>
          5 11 1 2 3.</_></rects>
      <tilted>1</tilted></_>
    <_>
      <rects>
        <_>
          5 0 3 3 -1.</_>
        <_>
          6 1 1 3 3.</_></rects>
      <tilted>1</tilted></_>
    <_>
      <rects>
        <_>
          5 0 3 4 -1.</_>
        <_>
          6 1 1 4 3.</_></rects>
      <tilted>1</tilted></_>
    <_>
      <rects>
        <_>
          6 1 2 5 -1.</_>
        <_>
          6 1 1 5 2.</_></rects>
      <tilted>1</tilted></_>
    <_>
      <rects>
        <_>
          6 11 4 1 -1.</_>
        <_>
          6 11 2 1 2.</_></rects>
      <tilted>1</tilted></_>
    <_>
      <rects>
        <_>
          7 0 2 5 -1.</_>
        <_>
          7 0 1 5 2.</_></rects>
      <tilted>1</tilted></_>
    <_>
      <rects>
        <_>
          7 0 4 7 -1.</_>
        <_>
          7 0 2 7 2.</_></rects>
      <tilted>1</tilted></_>
    <_>
      <rects>
        <_>
          7 0 6 6 -1.</_>
        <_>
          7 0 3 3 2.</_>
        <_>
          10 3 3 3 2.</_></rects>
      <tilted>0</tilted></_>
    <_>
      <rects>
        <_>
          7 1 2 3 -1.</_>
        <_>
          7 2 2 1 3.</_></rects>
      <tilted>0</tilted></_>
    <_>
      <rects>
        <_>
          8 0 6 2 -1.</_>
        <_>
          10 2 2 2 3.</_></rects>
      <tilted>1</tilted></_>
    <_>
      <rects>
        <_>
          8 10 1 4 -1.</_>
        <_>
          8 12 1 2 2.</_></rects>
      <tilted>0</tilted></_>
    <_>
      <rects>
        <_>
          9 2 14 16 -1.</_>
        <_>
          9 10 14 8 2.</_></rects>
      <tilted>0</tilted></_>
    <_>
      <rects>
        <_>
          9 17 4 2 -1.</_>
        <_>
          9 17 2 1 2.</_>
        <_>
          11 18 2 1 2.</_></rects>
      <tilted>0</tilted></_>
    <_>
      <rects>
        <_>
          10 0 3 6 -1.</_>
        <_>
          11 2 1 2 9.</_></rects>
      <tilted>0</tilted></_>
    <_>
      <rects>
        <_>
          10 0 7 6 -1.</_>
        <_>
          10 2 7 2 3.</_></rects>
      <tilted>0</tilted></_>
    <_>
      <rects>
        <_>
          10 13 2 4 -1.</_>
        <_>
          10 15 2 2 2.</_></rects>
      <tilted>0</tilted></_>
    <_>
      <rects>
        <_>
          11 0 5 2 -1.</_>
        <_>
          11 1 5 1 2.</_></rects>
      <tilted>0</tilted></_>
    <_>
      <rects>
        <_>
          13 0 4 4 -1.</_>
        <_>
          13 0 2 2 2.</_>
        <_>
          15 2 2 2 2.</_></rects>
      <tilted>0</tilted></_>
    <_>
      <rects>
        <_>
          14 15 8 8 -1.</_>
        <_>
          14 15 4 4 2.</_>
        <_>
          18 19 4 4 2.</_></rects>
      <tilted>0</tilted></_>
    <_>
      <rects>
        <_>
          15 0 6 12 -1.</_>
        <_>
          17 2 2 12 3.</_></rects>
      <tilted>1</tilted></_>
    <_>
      <rects>
        <_>
          15 16 4 3 -1.</_>
        <_>
          16 16 2 3 2.</_></rects>
      <tilted>0</tilted></_>
    <_>
      <rects>
        <_>
          17 0 3 6 -1.</_>
        <_>
          17 3 3 3 2.</_></rects>
      <tilted>0</tilted></_>
    <_>
      <rects>
        <_>
          17 14 1 2 -1.</_>
        <_>
          17 15 1 1 2.</_></rects>
      <tilted>0</tilted></_>
    <_>
      <rects>
        <_>
          18 1 2 18 -1.</_>
        <_>
          18 7 2 6 3.</_></rects>
      <tilted>0</tilted></_>
    <_>
      <rects>
        <_>
          19 18 6 6 -1.</_>
        <_>
          19 18 3 3 2.</_>
        <_>
          22 21 3 3 2.</_></rects>
      <tilted>0</tilted></_>
    <_>
      <rects>
        <_>
          20 18 4 4 -1.</_>
        <_>
          22 18 2 4 2.</_></rects>
      <tilted>0</tilted></_>
    <_>
      <rects>
        <_>
          22 21 3 3 -1.</_>
        <_>
          23 21 1 3 3.</_></rects>
      <tilted>0</tilted></_></features></cascade>
</opencv_storage>
